 /** This is an automatically created file by convertToCCSC.py.
  * It was written on 2020-10-08 15:43:01.134048
  * This file contains information about the layers in the neural network that is executed
  * It utilizes the struct model and struct layer declarations of the model.h file and creates one for each layer and includes the layers in the model
  */
 
 
 
  #ifndef MODELP_H
  #define MODELP_H
 
 
  #include <stdint.h>
  #include <avr/pgmspace.h>
  #include "model.h"
 
 
 
//Defining  some  constants:
const  int  numInputs  =  180;
const  int  numberOfLayers  =  2;
const  int  numOutputs  =  5;
  
//take  care  of  layer1
const  double  dataLayer1  []  PROGMEM  =  {-0.7921868562698364 ,-0.9941257238388062 ,0.5625654458999634 ,0.872268557548523 ,-1.2273768186569214 ,0.872268557548523 ,0.872268557548523 ,0.5625654458999634 ,-1.8017749786376953 ,1.1558890342712402 ,0.872268557548523 ,0.872268557548523 ,-1.8017749786376953 ,1.1558890342712402 ,0.872268557548523 ,1.1558890342712402 ,-1.8017749786376953 ,1.1558890342712402 ,1.1558890342712402 ,0.872268557548523 ,-1.4920995235443115 ,1.1558890342712402 ,0.872268557548523 ,1.1558890342712402 ,0.872268557548523 ,-1.2273768186569214 ,-0.7921868562698364 ,-1.2273768186569214 ,-1.2273768186569214 ,-0.7921868562698364 ,0.872268557548523 ,-1.2273768186569214 ,-1.2273768186569214 ,-1.2273768186569214 ,-0.7921868562698364 ,1.4950588941574097 ,-1.4920995235443115 ,-0.9941257238388062 ,0.5625654458999634 ,-0.7921868562698364 ,1.835639238357544 ,-1.4920995235443115 ,-0.9941257238388062 ,0.872268557548523 ,2.26257061958313 ,-1.2273768186569214 ,-0.9941257238388062 ,0.872268557548523 ,2.26257061958313 ,0.5625654458999634 ,1.835639238357544 ,0.5625654458999634 ,1.1558890342712402 ,0.872268557548523 ,0.872268557548523 ,0.872268557548523 ,0.872268557548523 ,0.872268557548523 ,1.1558890342712402 ,1.1558890342712402 ,0.5625654458999634 ,-0.9941257238388062 ,1.4950588941574097 ,0.5625654458999634 ,-0.9941257238388062 ,-2.1105830669403076 ,1.835639238357544 ,-1.2273768186569214 ,-1.2273768186569214 ,-2.1105830669403076 ,1.835639238357544 ,1.1558890342712402 ,-0.37452399730682373 ,-1.2273768186569214 ,-1.4920995235443115 ,-2.1105830669403076 ,1.835639238357544 ,1.1558890342712402 ,-0.9941257238388062 ,-1.8017749786376953 ,1.835639238357544 ,0.872268557548523 ,1.1558890342712402 ,-0.7921868562698364 ,-1.2273768186569214 ,1.4950588941574097 ,-1.2273768186569214 ,-1.8017749786376953 ,-1.2273768186569214 ,-0.7921868562698364 ,1.1558890342712402 ,1.4950588941574097 ,1.835639238357544 ,-2.4919936656951904 ,-1.8017749786376953 ,-0.37452399730682373 ,-1.2273768186569214 ,1.4950588941574097 ,2.26257061958313 ,-2.1105830669403076 ,-1.8017749786376953 ,-0.9941257238388062 ,-0.9941257238388062 ,1.835639238357544 ,2.718916177749634 ,-2.1105830669403076 ,-1.4920995235443115 ,-0.7921868562698364 ,1.4950588941574097 ,2.26257061958313 ,-1.8017749786376953 ,-0.9941257238388062 ,1.1558890342712402 ,2.26257061958313 ,-1.2273768186569214 ,1.835639238357544 ,1.1558890342712402 ,0.872268557548523 ,1.1558890342712402 ,0.872268557548523 ,0.5625654458999634 ,1.1558890342712402 ,1.1558890342712402 ,0.5625654458999634 ,1.1558890342712402 ,1.835639238357544 ,-2.1105830669403076 ,0.5625654458999634 ,1.1558890342712402 ,1.835639238357544 ,-1.4920995235443115 ,-3.0702996253967285 ,-1.4920995235443115 ,1.1558890342712402 ,2.26257061958313 ,-1.4920995235443115 ,-3.0702996253967285 ,-1.4920995235443115 ,2.26257061958313 ,-0.7921868562698364 ,-2.4919936656951904 ,-0.37452399730682373 ,2.718916177749634 ,-0.37452399730682373 ,-1.4920995235443115 ,0.5625654458999634 ,-0.7921868562698364 ,-0.9941257238388062 ,-1.4920995235443115 ,-0.7921868562698364 ,0.872268557548523 ,1.1558890342712402 ,1.835639238357544 ,-0.37452399730682373 ,-1.4920995235443115 ,-1.4920995235443115 ,0.872268557548523 ,-1.2273768186569214 ,1.835639238357544 ,1.835639238357544 ,-0.7921868562698364 ,-1.4920995235443115 ,-1.4920995235443115 ,0.872268557548523 ,-1.4920995235443115 ,1.835639238357544 ,2.26257061958313 ,-1.2273768186569214 ,-1.4920995235443115 ,-1.8017749786376953 ,0.872268557548523 ,-1.4920995235443115 ,2.26257061958313 ,1.835639238357544 ,-1.4920995235443115 ,0.5625654458999634 ,-1.4920995235443115 ,-1.2273768186569214 ,1.1558890342712402 ,-1.4920995235443115 ,1.835639238357544 ,1.4950588941574097 ,-1.8017749786376953 ,0.872268557548523 ,1.1558890342712402 ,1.4950588941574097 ,-1.4920995235443115 ,0.5625654458999634 ,1.1558890342712402 ,-1.2273768186569214 ,1.4950588941574097 ,1.1558890342712402 ,1.1558890342712402 ,0.872268557548523 ,0.872268557548523 ,1.4950588941574097 ,1.1558890342712402 ,-0.7921868562698364 ,2.26257061958313 ,-0.9941257238388062 ,-2.4919936656951904 ,-0.9941257238388062 ,1.1558890342712402 ,0.5625654458999634 ,1.835639238357544 ,-1.4920995235443115 ,1.4950588941574097 ,1.4950588941574097 ,0.5625654458999634 ,0.5625654458999634 ,1.4950588941574097 ,-2.4919936656951904 ,-0.37452399730682373 ,0.5625654458999634 ,0.5625654458999634 ,1.1558890342712402 ,1.835639238357544 ,-1.4920995235443115 ,-1.2273768186569214 ,1.4950588941574097 ,-1.2273768186569214 ,1.1558890342712402 ,1.835639238357544 ,-1.2273768186569214 ,-0.9941257238388062 ,1.835639238357544 ,1.835639238357544 ,0.5625654458999634 ,1.835639238357544 ,1.4950588941574097 ,-1.2273768186569214 ,-1.4920995235443115 ,-0.7921868562698364 ,0.872268557548523 ,1.4950588941574097 ,0.5625654458999634 ,2.26257061958313 ,-0.9941257238388062 ,0.872268557548523 ,-0.9941257238388062 ,-0.9941257238388062 ,1.1558890342712402 ,1.1558890342712402 ,-2.4919936656951904 ,0.872268557548523 ,-1.4920995235443115 ,-1.2273768186569214 ,1.835639238357544 ,0.5625654458999634 ,0.872268557548523 ,-3.0702996253967285 ,-2.1105830669403076 ,-2.4919936656951904 ,1.835639238357544 ,-2.1105830669403076 ,-0.9941257238388062 ,-0.7921868562698364 ,-1.2273768186569214 ,-0.37452399730682373 ,0.5625654458999634 ,-1.2273768186569214 ,-1.2273768186569214 ,-1.4920995235443115 ,-0.9941257238388062 ,-1.8017749786376953 ,-1.2273768186569214 ,-0.9941257238388062 ,-1.2273768186569214 ,-1.2273768186569214 ,-0.9941257238388062 ,0.872268557548523 ,0.872268557548523 ,-0.9941257238388062 ,0.872268557548523 ,0.872268557548523 ,-0.9941257238388062 ,1.1558890342712402 ,0.872268557548523 ,-0.9941257238388062 ,-1.2273768186569214 ,1.835639238357544 ,1.1558890342712402 ,-1.2273768186569214 ,-1.2273768186569214 ,0.872268557548523 ,-0.9941257238388062 ,2.26257061958313 ,1.835639238357544 ,-1.4920995235443115 ,-1.2273768186569214 ,0.872268557548523 ,-0.9941257238388062 ,2.26257061958313 ,2.26257061958313 ,-0.9941257238388062 ,-1.8017749786376953 ,-1.8017749786376953 ,-0.7921868562698364 ,2.26257061958313 ,2.26257061958313 ,-0.7921868562698364 ,-1.8017749786376953 ,-1.8017749786376953 ,-0.7921868562698364 ,1.835639238357544 ,1.835639238357544 ,-0.37452399730682373 ,-0.9941257238388062 ,-1.4920995235443115 ,1.1558890342712402 ,1.4950588941574097 ,-0.7921868562698364 ,-0.7921868562698364 ,0.5625654458999634 ,-0.9941257238388062 ,-1.2273768186569214 ,-0.7921868562698364 ,0.5625654458999634 ,-2.1105830669403076 ,-1.2273768186569214 ,-0.7921868562698364 ,0.5625654458999634 ,0.872268557548523 ,0.5625654458999634 ,-2.1105830669403076 ,-1.4920995235443115 ,-0.37452399730682373 ,0.5625654458999634 ,0.872268557548523 ,0.5625654458999634 ,-0.7921868562698364 ,-2.1105830669403076 ,-1.4920995235443115 ,0.5625654458999634 ,0.872268557548523 ,1.1558890342712402 ,-0.7921868562698364 ,-2.1105830669403076 ,-1.8017749786376953 ,0.872268557548523 ,0.5625654458999634 ,1.1558890342712402 ,-1.4920995235443115 ,-0.9941257238388062 ,1.1558890342712402 ,-0.7921868562698364 ,1.1558890342712402 ,0.872268557548523 ,0.872268557548523 ,0.872268557548523 ,1.1558890342712402 ,0.872268557548523 ,0.872268557548523 ,0.872268557548523 ,1.1558890342712402 ,0.872268557548523 ,0.872268557548523 ,1.1558890342712402 ,1.4950588941574097 ,2.26257061958313 ,-0.7921868562698364 ,-0.7921868562698364 ,1.4950588941574097 ,2.718916177749634 ,-0.7921868562698364 ,-0.9941257238388062 ,1.4950588941574097 ,2.718916177749634 ,-1.4920995235443115 ,-1.4920995235443115 ,1.4950588941574097 ,0.5625654458999634 ,2.718916177749634 ,-2.4919936656951904 ,-1.8017749786376953 ,0.872268557548523 ,2.718916177749634 ,-2.4919936656951904 ,-0.37452399730682373 ,-2.1105830669403076 ,2.26257061958313 ,-2.1105830669403076 ,-1.8017749786376953 ,1.4950588941574097 ,-0.7921868562698364 ,-1.4920995235443115 ,0.872268557548523 ,0.872268557548523 ,-1.2273768186569214 ,1.4950588941574097 ,0.5625654458999634 ,-0.9941257238388062 ,-1.8017749786376953 ,1.4950588941574097 ,0.5625654458999634 ,-2.1105830669403076 ,1.1558890342712402 ,-1.8017749786376953 ,-1.8017749786376953 ,-1.4920995235443115 ,-0.7921868562698364 ,1.1558890342712402 ,1.1558890342712402};
const  unsigned  char  indicesLayer1  []  PROGMEM  =  {17.0 ,26.0 ,30.0 ,33.0 ,35.0 ,36.0 ,39.0 ,42.0 ,44.0 ,45.0 ,48.0 ,51.0 ,53.0 ,54.0 ,57.0 ,60.0 ,62.0 ,63.0 ,66.0 ,69.0 ,71.0 ,72.0 ,73.0 ,75.0 ,78.0 ,80.0 ,99.0 ,102.0 ,105.0 ,106.0 ,107.0 ,108.0 ,111.0 ,114.0 ,115.0 ,116.0 ,117.0 ,120.0 ,122.0 ,123.0 ,125.0 ,126.0 ,129.0 ,131.0 ,134.0 ,135.0 ,138.0 ,140.0 ,143.0 ,149.0 ,152.0 ,158.0 ,161.0 ,170.0 ,179.0 ,2.0 ,9.0 ,10.0 ,18.0 ,19.0 ,21.0 ,26.0 ,27.0 ,30.0 ,34.0 ,35.0 ,36.0 ,42.0 ,43.0 ,44.0 ,45.0 ,46.0 ,50.0 ,51.0 ,52.0 ,53.0 ,54.0 ,55.0 ,61.0 ,62.0 ,63.0 ,64.0 ,65.0 ,70.0 ,71.0 ,72.0 ,80.0 ,99.0 ,100.0 ,102.0 ,105.0 ,106.0 ,107.0 ,108.0 ,109.0 ,110.0 ,111.0 ,115.0 ,116.0 ,117.0 ,118.0 ,119.0 ,120.0 ,124.0 ,125.0 ,126.0 ,127.0 ,129.0 ,133.0 ,134.0 ,135.0 ,138.0 ,142.0 ,143.0 ,144.0 ,152.0 ,161.0 ,170.0 ,4.0 ,9.0 ,18.0 ,20.0 ,22.0 ,27.0 ,28.0 ,29.0 ,33.0 ,35.0 ,37.0 ,38.0 ,39.0 ,42.0 ,43.0 ,46.0 ,47.0 ,48.0 ,51.0 ,52.0 ,56.0 ,57.0 ,60.0 ,61.0 ,65.0 ,66.0 ,69.0 ,70.0 ,78.0 ,91.0 ,100.0 ,101.0 ,102.0 ,105.0 ,106.0 ,107.0 ,109.0 ,110.0 ,111.0 ,113.0 ,114.0 ,115.0 ,116.0 ,118.0 ,119.0 ,120.0 ,122.0 ,123.0 ,124.0 ,125.0 ,127.0 ,128.0 ,129.0 ,131.0 ,132.0 ,133.0 ,134.0 ,135.0 ,136.0 ,137.0 ,138.0 ,140.0 ,141.0 ,142.0 ,143.0 ,147.0 ,150.0 ,151.0 ,152.0 ,159.0 ,160.0 ,161.0 ,0.0 ,1.0 ,3.0 ,8.0 ,9.0 ,10.0 ,12.0 ,16.0 ,19.0 ,22.0 ,25.0 ,31.0 ,39.0 ,44.0 ,46.0 ,47.0 ,48.0 ,50.0 ,51.0 ,53.0 ,55.0 ,56.0 ,59.0 ,60.0 ,62.0 ,63.0 ,64.0 ,65.0 ,68.0 ,73.0 ,74.0 ,80.0 ,82.0 ,83.0 ,88.0 ,89.0 ,91.0 ,96.0 ,98.0 ,100.0 ,101.0 ,103.0 ,104.0 ,105.0 ,107.0 ,108.0 ,109.0 ,110.0 ,111.0 ,112.0 ,113.0 ,116.0 ,118.0 ,119.0 ,120.0 ,121.0 ,122.0 ,125.0 ,126.0 ,127.0 ,128.0 ,130.0 ,131.0 ,136.0 ,137.0 ,139.0 ,140.0 ,141.0 ,142.0 ,145.0 ,148.0 ,150.0 ,151.0 ,156.0 ,157.0 ,159.0 ,160.0 ,164.0 ,166.0 ,169.0 ,171.0 ,172.0 ,178.0 ,15.0 ,16.0 ,20.0 ,24.0 ,25.0 ,28.0 ,29.0 ,33.0 ,34.0 ,37.0 ,38.0 ,39.0 ,41.0 ,42.0 ,43.0 ,46.0 ,47.0 ,48.0 ,50.0 ,51.0 ,52.0 ,54.0 ,55.0 ,56.0 ,59.0 ,60.0 ,61.0 ,63.0 ,64.0 ,65.0 ,68.0 ,69.0 ,70.0 ,72.0 ,73.0 ,74.0 ,78.0 ,79.0 ,83.0 ,86.0 ,90.0 ,95.0 ,96.0 ,98.0 ,99.0 ,105.0 ,106.0 ,107.0 ,108.0 ,109.0 ,110.0 ,114.0 ,115.0 ,116.0 ,117.0 ,118.0 ,119.0 ,120.0 ,123.0 ,124.0 ,126.0 ,127.0 ,128.0 ,129.0 ,132.0 ,133.0 ,135.0 ,136.0 ,137.0 ,141.0 ,142.0 ,144.0 ,150.0 ,153.0 ,154.0 ,157.0 ,161.0 ,162.0 ,163.0 ,164.0 ,166.0 ,171.0 ,173.0 ,175.0 ,8.0 ,17.0 ,26.0 ,27.0 ,30.0 ,32.0 ,35.0 ,36.0 ,39.0 ,41.0 ,44.0 ,45.0 ,48.0 ,50.0 ,52.0 ,53.0 ,54.0 ,57.0 ,59.0 ,62.0 ,63.0 ,65.0 ,66.0 ,71.0 ,72.0 ,75.0 ,80.0 ,81.0 ,84.0 ,89.0 ,101.0 ,107.0 ,108.0 ,109.0 ,115.0 ,116.0 ,117.0 ,118.0 ,125.0 ,126.0 ,134.0 ,143.0 ,152.0 ,161.0 ,162.0 ,171.0};
const  int  indptrLayer1  []  PROGMEM  =  {0 ,55 ,55 ,55 ,118 ,190 ,273 ,357 ,403};
const  double  biasLayer1  []  PROGMEM=  {0.4158689 ,-0.015073096 ,-0.013051735 ,0.36578605 ,0.51053727 ,0.0038128397 ,0.48108834 ,0.250305};
const  int  numberOfNonZeroValuesLayer1  =  403;
const  int  numNeuronsLayer1  =  8;
    
  
//take  care  of  layer2
const  double  dataLayer2  []  PROGMEM  =  {9.823941230773926 ,-9.497029304504395 ,-18.95896339416504 ,-15.059316635131836 ,-15.059316635131836 ,-18.95896339416504 ,-9.497029304504395 ,-9.497029304504395 ,9.823941230773926 ,-18.95896339416504 ,-9.497029304504395};
const  unsigned  char  indicesLayer2  []  PROGMEM  =  {5.0 ,3.0 ,5.0 ,5.0 ,7.0 ,3.0 ,4.0 ,5.0 ,3.0 ,6.0 ,7.0};
const  int  indptrLayer2  []  PROGMEM  =  {0 ,1 ,3 ,5 ,8 ,11};
const  double  biasLayer2  []  PROGMEM=  {-9.359523 ,-1.2569777 ,-1.1336831 ,5.683085 ,2.7815223};
const  int  numberOfNonZeroValuesLayer2  =  11;
const  int  numNeuronsLayer2  =  5;
    
    
//Defining  the  layers  used  in  this  model  
struct  layer  layer1  =  {
    .numNeurons  =  numNeuronsLayer1 ,
    .data  =  dataLayer1 ,
    .indices  =  indicesLayer1 ,
    .indptr  =  indptrLayer1 ,
    .bias  =  biasLayer1 ,
    .numberOfNonZeroValues  =  numberOfNonZeroValuesLayer1
};
    
struct  layer  layer2  =  {
    .numNeurons  =  numNeuronsLayer2 ,
    .data  =  dataLayer2 ,
    .indices  =  indicesLayer2 ,
    .indptr  =  indptrLayer2 ,
    .bias  =  biasLayer2 ,
    .numberOfNonZeroValues  =  numberOfNonZeroValuesLayer2
};
    
//Defining  the  model  and  including  the  just  defined  layers  
struct  model  myModel  =  {
    .numInputs  =  numInputs ,
    .numOutputs  =  numOutputs ,
    .numLayers  =  numberOfLayers ,
    .layers  =  {layer1 ,layer2}
};
 
 
#endif
