#pragma once

namespace model {

const PROGMEM float X[180] = {
	0.677734f, 0.693359f, 0.712891f, 0.708008f, 0.669922f, 0.711914f, 0.714844f, 0.675781f, 0.662109f, 0.679688f, 0.695364f, 0.714895f, 0.710835f, 0.674548f, 0.714638f, 0.713353f, 0.673674f, 0.659334f, 0.679482f, 0.696083f, 0.715512f, 0.704975f, 0.666427f, 0.708984f, 0.611174f, 0.580952f, 0.576377f, 0.673263f, 0.690944f, 0.711349f, 0.628032f, 0.596012f, 0.664474f, 0.233296f, 0.227179f, 0.253803f, 0.593287f, 0.628238f, 0.674342f, 0.328690f, 0.306332f, 0.418586f, 0.035516f, 0.023643f, 0.025391f, 0.294665f, 0.355315f, 0.435341f, 0.053968f, 0.028269f, 0.044922f, 0.017013f, 0.008995f, 0.009714f, 0.038292f, 0.046618f, 0.052323f, 0.024568f, 0.010177f, 0.015419f, 0.012079f, 0.006219f, 0.006219f, 0.015419f, 0.016036f, 0.014700f, 0.017116f, 0.006116f, 0.009663f, 0.010023f, 0.004523f, 0.004523f, 0.010485f, 0.010485f, 0.008532f, 0.013826f, 0.004472f, 0.007401f, 0.008789f, 0.003906f, 0.003906f, 0.008326f, 0.007864f, 0.006373f, 0.011770f, 0.003444f, 0.006373f, 0.009714f, 0.006682f, 0.002981f, 0.007299f, 0.006322f, 0.005345f, 0.011256f, 0.007042f, 0.005859f, 0.009714f, 0.007710f, 0.001953f, 0.006836f, 0.012079f, 0.004883f, 0.011719f, 0.009046f, 0.005294f, 0.044973f, 0.005859f, 0.001953f, 0.006836f, 0.017218f, 0.004266f, 0.016653f, 0.005962f, 0.004266f, 0.327868f, 0.052734f, 0.003187f, 0.007504f, 0.011565f, 0.003238f, 0.133121f, 0.015574f, 0.003906f, 0.599147f, 0.299239f, 0.037315f, 0.049548f, 0.010948f, 0.002930f, 0.455387f, 0.136359f, 0.019737f, 0.694130f, 0.555099f, 0.283717f, 0.332751f, 0.097296f, 0.006785f, 0.653526f, 0.444490f, 0.157227f, 0.711092f, 0.650442f, 0.541992f, 0.586863f, 0.418637f, 0.063734f, 0.702046f, 0.625000f, 0.511462f, 0.716026f, 0.674291f, 0.643966f, 0.664782f, 0.630140f, 0.386153f, 0.707802f, 0.664731f, 0.677889f, 0.714176f, 0.674137f, 0.657792f, 0.673623f, 0.682669f, 0.640265f, 0.707083f, 0.668843f, 0.708008f, 0.716643f, 0.677529f, 0.662829f, 0.679688f, 0.695312f, 0.709961f, 0.709961f, 0.672852f, 0.713867f, 0.716797f, 0.676758f, 0.662109f, 
};

const PROGMEM int16_t Xint[180] = {
	21, 22, 22, 22, 21, 22, 22, 21, 21, 21, 22, 22, 22, 21, 22, 22, 21, 21, 21, 22, 22, 22, 21, 22, 19, 18, 18, 21, 22, 22, 20, 19, 21, 7, 7, 8, 18, 20, 21, 10, 9, 13, 1, 0, 0, 9, 11, 13, 1, 0, 1, 0, 0, 0, 1, 1, 1, 0, 0, 0, 0, 0, 0, 0, 0, 0, 0, 0, 0, 0, 0, 0, 0, 0, 0, 0, 0, 0, 0, 0, 0, 0, 0, 0, 0, 0, 0, 0, 0, 0, 0, 0, 0, 0, 0, 0, 0, 0, 0, 0, 0, 0, 0, 0, 0, 1, 0, 0, 0, 0, 0, 0, 0, 0, 10, 1, 0, 0, 0, 0, 4, 0, 0, 19, 9, 1, 1, 0, 0, 14, 4, 0, 22, 17, 9, 10, 3, 0, 20, 14, 5, 22, 20, 17, 18, 13, 2, 22, 19, 16, 22, 21, 20, 21, 20, 12, 22, 21, 21, 22, 21, 21, 21, 21, 20, 22, 21, 22, 22, 21, 21, 21, 22, 22, 22, 21, 22, 22, 21, 21, 
};

const int scaleOfX = -5;

const int Y = 0;

const PROGMEM int16_t W1[8][180] = {
	-3298, -2866, -2657, 11, -2372, -1546, -148, -2435, -4730, -1023, -794, -921, 2252, -3084, -1590, 2749, -203, -6791, 1353, -2875, -2921, 2203, -416, -1, 4177, 2887, -7630, 2413, -2162, -695, 5496, -1264, -499, 6609, 2354, -10265, 6422, 450, -1066, 6479, -1969, -3732, 5377, -592, -14561, 8763, 1164, 3138, 6075, -3603, -2814, 6585, 1842, -14702, 9799, -184, 517, 8122, -3115, -3316, 8712, 3494, -14232, 10302, 2434, 2863, 9343, 22, 21, 8173, 2554, -12147, 9255, 6745, 4445, 9921, 3104, 702, 6511, 261, -9248, 4927, 4018, 2359, 4483, 2520, -383, 1579, -1404, -4239, -1357, 2642, -506, -2286, -2811, -3381, -4174, -3362, -148, -6423, -1114, -3133, -9303, -3623, -4149, -9972, -4891, 7338, -9449, -3253, -1200, -9037, -2260, -1007, -8995, -6299, 13798, -12138, -4262, -1008, -7707, -1044, 5336, -5711, -2532, 15953, -11058, -868, 1542, -7064, 2141, 7903, -3847, -2985, 18987, -9421, -1336, -233, -6842, 1663, 7610, -4323, -517, 19245, -3901, -802, 1542, -3092, 4, 5154, -3894, 466, 13912, -616, 1267, 2773, -332, 1285, 5136, -1217, -1509, 9341, 2312, 148, 634, -482, 605, 3035, -788, 1215, 7449, 2846, 618, 1658, 1029, 2712, 2278, 1330, 1988, 8064, 
	-1071, 124, 817, 1397, -898, 1361, -70, 34, -299, 548, 520, 922, -1246, -1306, 1426, -769, -57, -1085, 1235, -264, -682, -1180, -247, 194, -716, -944, -1172, -657, -884, 46, 659, -13, -848, -947, 354, 640, 639, 1327, 416, -667, 1277, -360, -1371, 1395, 682, 1139, 473, 406, 20, 954, -1383, -1074, -141, 1144, 673, 1094, -1089, 244, 1339, 854, 265, -1260, -1366, -499, -715, -142, 26, -472, -281, 910, -865, 891, 26, -660, 227, -587, -840, -1404, 935, -351, 583, -1353, -1400, 1318, 524, 415, 1199, -1277, -1013, -495, -1437, 289, 883, -1376, 523, -369, 1273, -1168, -1109, -1379, 103, -1417, -514, -622, -211, -1353, 1449, -1053, -179, -637, 1117, 203, 1175, 48, 1120, -543, 981, 1249, 651, -919, -1148, -316, 1140, -553, -766, 178, -107, -1061, -155, 65, 44, 70, -550, -535, -1371, 1110, -1438, 190, -168, 1280, -441, 1224, -628, -1033, 634, 1460, -155, 193, 974, 273, -390, -302, -1254, -1298, -258, -589, 669, 62, -324, -940, -245, -275, 915, 422, -787, -1159, 356, -610, -1225, -943, 692, 157, -516, 1462, -153, -132, -320, -1171, -559, -90, 
	1022, -1296, -309, -1501, -501, 812, 1078, -1046, -1103, -288, 313, 1162, -638, -1567, -558, 575, -1432, -1304, -1029, -138, 488, -710, 50, -12, -268, 114, 1301, 308, -59, -575, -1207, 944, 861, 959, -181, 1041, -1496, 977, -197, -843, -255, -78, -322, -518, -1479, 457, 413, 901, 327, 527, -307, -1058, -1081, -1107, 703, 865, -1000, -1525, 632, -158, -736, 311, -465, 1126, -1234, 310, 586, -1263, -1267, -68, -824, 394, 617, -1281, 176, 1316, -259, -1537, -1045, -261, 603, 674, 725, 489, -1375, -878, -954, 934, -264, -258, 659, 486, -473, -1116, -1315, 1046, -391, -1431, -986, -722, 844, -339, -404, 440, -719, 349, -1396, 348, -1089, -472, 872, -752, -867, -1239, 814, -748, -1374, 173, -1272, -1229, -1560, 1356, 601, 1205, 797, -1150, 1340, -599, -1060, -237, 526, -133, -306, 184, -412, -611, 1106, -1097, 421, -1044, -125, -648, 160, -1057, -1389, 966, 285, 466, -289, 467, -933, -419, 469, -1095, -953, 572, 327, 1105, 1134, -1494, 482, -125, 69, -1289, -1396, 1169, -779, -141, 1345, 305, -134, 1009, -1177, 282, -900, -1098, 136, -865, 44, 335, 
	4288, 4631, 4720, 3223, 3130, 1303, -933, 1784, 317, 7397, 5131, 3902, 3613, 4606, 2350, -662, -2359, -2925, 8835, 6599, 4339, 4378, 1742, 118, -1358, -4372, -7102, 9772, 4982, 4745, 4003, 309, -2045, -6292, -5929, -14514, 11080, 4006, 4976, 3741, 1726, -2414, -8623, -8047, -14973, 11177, 5886, 4038, 2380, -555, -4935, -9129, -10945, -16670, 12440, 7116, 3360, -67, 463, -2319, -7730, -8530, -14294, 12632, 6058, 5796, 1566, 2816, -2668, -3621, -5936, -9511, 9733, 3400, 3993, -144, 261, -2262, -4143, -5368, -9191, 1630, 750, 3155, -1143, -1536, -2103, -297, -2432, -1328, -5520, -5361, -1945, -2758, -2575, -1500, 2110, 2674, 5044, -13010, -9160, -6421, -7137, -2439, -1060, 6014, 8389, 12161, -17675, -13478, -8150, -8339, -3935, -3814, 3757, 8487, 13518, -13669, -12547, -10707, -6323, -2025, -4865, 4610, 8225, 15775, -12878, -8568, -4962, -5501, 245, -4178, 1723, 7057, 12977, -10383, -3884, -971, -6848, 1525, 1244, 1614, 4724, 11952, -6540, -4123, -677, -2252, 3975, 1931, -482, 4097, 12797, -2150, -2774, 373, -1888, 3280, 1410, 2159, 2500, 9535, 1266, 718, -598, 2820, 4012, 1475, 3407, 4227, 5824, 4032, 1389, 2443, 2976, 3603, 2615, 3931, 4209, 4066, 
	2791, 3393, 3981, 1605, 7577, 3078, 502, 4924, 5576, 6053, 4148, 4101, 485, 4924, 2385, 65, 4452, 4801, 6166, 3349, 5339, 307, 6929, 1144, -5245, 100, 5521, 5812, 7509, 7986, -3516, 4401, 3904, -8104, -5068, 6068, 1399, 7168, 6974, -5418, 2973, 2924, -13817, -6864, 3541, 1124, 5301, 8265, -7074, 1459, -989, -13336, -9395, 2501, 2489, 4317, 5386, -5238, 2432, -684, -14912, -8260, 2149, -382, 2225, 5905, -6041, 2122, 316, -13627, -6351, 2834, 829, 74, 4223, -4821, 2054, -1820, -8636, -5110, -244, -2497, -3843, -1792, -2069, 760, -2850, -4311, -760, -2247, -1076, -7069, -4420, 1600, 323, -3812, 2963, 3622, -4547, -2055, -9053, -7217, 6990, 1086, -5295, 9034, 9023, -6583, -1954, -9704, -9852, 7780, 707, -9177, 13333, 11975, -9368, -772, -9334, -9207, 6575, 1852, -10297, 12542, 12716, -11908, 2061, -7867, -9694, 6737, -292, -9003, 14843, 11973, -12166, 5166, -6566, -5347, 9204, 1545, -8652, 15694, 9849, -12220, 3848, -3603, -3866, 8903, 3047, -4001, 11281, 10058, -11225, 1880, 184, -738, 2747, 1442, -2561, 6198, 8486, -7633, -2591, -443, 477, 271, 3089, -1623, 3160, 4891, -4929, -2358, -621, -2130, -225, 2182, -3183, 1371, 1763, -5175, 
	13075, 8728, -3749, 8995, -2314, 858, 2157, -3178, 8368, 7847, 9859, -3776, 8934, -3712, 1256, -1386, -4966, 5161, 3558, 15989, -503, 2721, -6350, -1476, 6433, -15798, 3267, -1053, 3781, 541, 5736, -6215, 1378, 2852, -2302, -295, -929, -1080, -5680, 9264, -2670, 2200, 2609, 4298, 7996, -573, 7777, -16237, 12117, 4090, 6923, 6612, 2411, 8479, 3826, 5653, -22221, 4213, -294, -6244, 5370, -1043, 6830, 6967, 8430, -14673, -381, -5996, -12609, 1757, -5025, 2931, 2508, 8875, -12597, 2175, 2606, -4025, 2566, -4960, 10253, -1547, 11056, -9141, -1104, 1873, -3761, 3334, -8536, 11204, -1745, 12928, -4120, -1126, -1772, -3164, 6675, -2741, 11834, 487, 10600, -8576, -274, -9737, -7681, 8195, -6109, 9350, 6369, 15786, -6841, 7327, -6983, -9042, 6017, -4831, 4527, 6149, 6992, -18132, 6832, -10288, -13303, 6079, -1064, 5758, 6708, 7296, -24041, -804, -13697, -22470, -1728, -1907, 4044, 1841, 13316, -15618, 689, -5251, -9744, -8591, -5082, -1092, 64, 5791, -2815, 933, -6529, -3929, -6464, -13106, 4456, -588, 3140, -5282, -4795, -11550, -2519, -6005, -7432, -1919, 4177, 3880, -8221, 758, -7104, 1372, -1615, -6639, 482, 8879, 6943, -1395, 6091, -4027, 638, 2482, -6631, 2037, 
	-1117, -3125, -2580, -381, 2430, -2462, 4931, 2007, -1765, 803, -4405, -1656, 1917, 3048, -2608, 6852, 7114, -2295, -1168, -5326, -6815, 3315, 2294, -3212, 8012, 8417, -1163, -3320, -6794, -7546, 4338, 2318, -4374, 15747, 11467, -117, -982, -8755, -7472, 5320, 1393, -6842, 16816, 15492, 48, -4646, -12599, -8096, 5904, 790, -6713, 16890, 15439, -346, -8516, -13665, -13127, 4992, -1476, -6966, 15435, 13298, -994, -6728, -16113, -13614, 2914, -1932, -7407, 11372, 10397, -1524, -5112, -10056, -11376, 4428, -122, -5230, 6567, 7381, -3779, 364, -4239, -7018, 1507, -1831, -7306, -2784, 914, -6163, 4968, -43, -987, 987, -181, -6316, -8273, -5438, -9045, 7307, 4372, 1696, -2538, 1939, -4553, -14673, -10849, -8233, 7488, 6846, 5501, -2848, 2620, -2376, -15675, -11592, -7993, 6219, 7170, 6216, -4314, 1642, -140, -15609, -12497, -5303, 6197, 6281, 7992, -3660, 2844, 1371, -13669, -12792, -3229, 8036, 6024, 6732, -815, 1583, 2254, -9659, -6628, -1253, 10582, 4583, 4440, -174, 4672, 2251, -4525, -2066, 627, 9733, 6215, 4067, 2570, 5381, 2029, -2169, 384, 4906, 7148, 5878, 4011, 2846, 5576, 403, 1562, 3766, 4060, 5272, 2312, 4697, 2914, 6288, 542, 549, 3613, 2748, 
	2170, 2913, 1271, 3626, 1858, 2735, 2057, 1209, 7639, 2052, 2433, 783, 689, 2902, 4508, 1011, 997, 11210, -2575, 1064, 2508, -2689, 3107, 4739, -1482, 3434, 14781, -8029, -748, 1376, -4860, 808, 4492, -908, 3360, 17193, -8710, -2076, -256, -7042, -753, 5822, -2218, 3943, 18806, -12211, -4243, -2998, -9410, -1111, 5322, -485, 5158, 18714, -15597, -5686, -5696, -9962, -1313, 4018, -2487, 3386, 20464, -16150, -5691, -6875, -10287, -1545, 1607, -4434, 3404, 17586, -14069, -4460, -4385, -8894, -3506, 2584, -4103, 2223, 12797, -6441, -2347, -3636, -8234, -1924, 2521, -1736, 127, 6863, -1966, 0, -1039, -4057, -4696, -792, -1769, -1638, -419, 3058, 3076, 3303, -2481, -4112, 277, -964, -4084, -9645, 7820, 5245, 3001, 1274, -1391, -609, -2297, -6686, -14071, 6496, 6065, 2373, 2071, -3985, -956, -125, -4494, -15758, 6296, 3762, 797, 1145, -993, -1899, -1625, -4455, -14753, 4609, 2306, 931, 2721, -174, -2505, 433, -2844, -12440, 5369, 4159, -1252, 2351, -1128, -556, 1517, -3580, -10788, 4230, 5035, 1035, 2901, 941, 451, 2525, -1047, -5066, 5138, 3632, 3092, 4991, -499, 3481, 1746, -783, -1901, 5258, 4370, 2353, 3991, 501, 2719, 2440, -245, -723, 
};

const PROGMEM int16_t Bias1[8][1] = {
	9990, 
	0, 
	-427, 
	15443, 
	3896, 
	-4497, 
	15497, 
	-2928, 
};

const PROGMEM int16_t W2[5][8] = {
	711, 770, -201, 6739, -6596, 19090, -7458, 9003, 
	-7785, 680, -970, -9946, 9869, -29967, -2646, 5461, 
	7734, 99, -331, 1887, -5978, -27643, 6676, -15790, 
	6551, 582, 702, -28644, -10387, -15244, 10955, 10797, 
	-6839, 1074, 371, 15061, 7566, -607, -30230, -13438, 
};

const PROGMEM int16_t Bias2[5][1] = {
	-19757, 
	5602, 
	-16392, 
	6997, 
	13230, 
};

}
