/*
 * PROGMEM: Anweisung an den Compiler, um die Daten im Flash-/Programm-Speicher statt im SRAM zu speichern
 */

const float layer_0_weights[] PROGMEM = {0.014254617,0.5414428,0.37716952,-0.06574454,-0.060342066,-0.21240711,0.2606068,-0.055254657,-0.072082266,0.1497241,0.20122747,0.1035148,0.1238573,-0.13125072,0.11214924,0.074008845,0.010913612,0.08577765,0.20026428,-0.010039756,0.16168244,0.22214928,-0.5455905,-0.15967178,-0.37139145,0.20474112,0.37931302,0.08606308,0.03844304,0.59065515,-0.9666566,-0.1755484,-0.56620264,0.15736023,0.47275516,-0.15632793,0.113070615,0.7110497,-1.2387224,0.114782296,-0.65080893,0.33999905,0.40822634,0.15966727,0.12078226,0.75222373,-1.2041408,0.04157295,-0.66617274,0.20966333,0.40884012,-0.02585562,-0.08436735,0.6551701,-0.86151534,0.15914583,-0.20494753,0.2862253,0.60255766,-0.075947754,-0.005448185,0.37665224,-0.7795442,-0.09448365,-0.28702328,0.09417229,0.33453855,-0.12412944,-0.086625636,0.35217044,-0.37612405,0.10326968,-0.15839407,0.021635754,0.38613623,-0.053340066,-0.009658758,0.056801174,-0.06645485,-0.17577533,0.040304795,0.17340511,0.1292862,0.15143159,0.07930083,-0.2150293,0.30862114,-0.14432228,0.47884944,0.26009148,-0.12127437,0.07376009,0.15704823,-0.16474077,0.6115722,0.054168414,0.3567857,0.03498594,-0.41410404,0.011104122,-0.12957233,-0.0010563411,0.7911116,-0.11808815,0.5240789,-0.39774004,-0.53324795,0.09952134,0.019819355,-0.03832771,0.89398926,-0.07438289,0.59409195,-0.53078365,-0.6960729,-0.15036672,-0.1608523,-0.03647606,1.1872287,-0.16521825,0.3205373,-0.9762244,-0.5539147,-0.1573301,0.1452711,-0.10493787,1.296291,-0.039255522,0.17989084,-0.5173758,-0.31975767,-0.06836567,-0.024485424,-0.18952616,1.1562629,-0.13036378,0.19355118,0.10181325,-0.015782762,0.14751129,-0.15749319,-0.0027192489,0.57952213,0.1238413,0.23166698,0.2677334,-0.021169258,-0.034370814,-0.016249843,-0.09027998,0.2787106,0.07022013,0.011833995,0.48897198,0.14181864,-0.07471395,0.07998327,-0.46288073,0.35778254,0.055904794,0.0015884292,0.6784173,0.33934796,-0.018260635,-0.0010044673,-0.12599419,0.26686925,-0.14732474,0.22121206,0.29118982,0.018488914,0.14025731,-0.1195848,-0.24367568,0.15614654,-0.17598842,0.14775687,-0.011382405,0.06848682,-0.08872341,0.14644723,0.43673736,-0.12634039,0.0122189885,0.45901594,-0.11718006,-0.2692993,-0.013057305,-0.1657694,0.81402045,-0.7548863,-0.029454237,0.04401754,0.048577286,-0.72069407,-0.04804492,-0.1031024,0.7800587,-1.0724014,0.010319555,0.03682934,0.6614339,-0.53674906,0.08703938,0.0052314815,0.70676666,-0.93138033,-0.014483458,-0.1568222,0.37712952,-0.21058661,0.1436047,-0.16678928,0.7328761,-0.5994876,-0.025650118,-0.04123666,0.38042286,-0.19465202,-0.12980796,-0.08726473,0.40046898,-0.36925855,-0.060763277,-0.07473917,0.19798082,-0.16021542,0.033774342,0.017728856,0.26376963,-0.12743665,-0.025673408,0.03426887,0.0673168,-0.08933125,-0.117898226,-0.13091081,0.16593166,-0.10989826,-0.002383658,-0.10306698,-0.047004282,-0.14048073,0.15470341,0.071526885,0.22762911,0.23543596,-0.01624759,0.011152829,-0.077909894,-0.31841975,-0.037717164,0.12022037,-0.06857414,0.53577363,-0.10455898,0.106241934,-0.33818847,-0.011284924,0.13106701,-0.13423473,0.10410776,0.70438117,0.12553649,0.1529756,-0.4097356,0.24029459,0.019561246,0.1611473,-0.2433188,0.6104292,0.1541162,-0.18082891,-0.8223004,0.15043752,-0.06611042,-0.044548865,0.002655738,0.8427357,0.076542325,0.06947598,-1.1160325,0.5450696,-0.07360106,-0.05783937,-0.16676661,0.9892374,-0.15402535,0.23097725,-0.8881425,0.27773643,-0.16426423,-0.1495369,0.3203146,0.45571837,-0.14493214,-0.010789943,-0.22856554,0.3090637,0.16108197,0.020462219,-0.022643123,0.32058528,0.13393728,0.012553393,0.31241697,0.407473,-0.0139854755,0.088993914,-0.32730505,0.19068864,-0.17281142,0.16786289,0.54570454,0.30585173,-0.11993564,0.06615236,-0.31684506,0.032701727,0.09489256,0.18125036,0.5048695,0.41636473,-0.024055572,0.01760482,-0.19826375,0.06281449,-0.03460412,0.15681171,0.10098048,0.0015600713,0.14050329,-0.11564516,-0.10515602,0.005238217,0.123157665,0.36313823,0.23498328,-0.16193941,-0.15071587,-0.1119639,0.44108006,-0.088280864,-0.10508914,0.50594443,0.07932089,-1.1206735,-0.06331149,0.035578176,0.6565838,-0.34220496,0.020712623,0.48998982,0.19750734,-1.1708049,0.053045284,-0.08206488,0.6670652,-0.5093917,0.031871136,0.61749697,0.47283486,-1.3966008,0.00014665436,-0.14523545,0.64812905,-0.4871182,0.037922304,0.5738858,0.55079216,-1.1427851,0.17252009,-0.06490639,0.53339005,-0.36086434,-0.14723171,0.37185958,0.26618654,-0.5919047,0.089129664,-0.056386076,0.36528212,-0.2965741,-0.09060496,0.384716,0.25002864,-0.37461367,-0.10982834,-0.15675443,0.25991693,-0.12062093,-0.049449664,0.1556109,0.4176668,-0.074279435,-0.006701761,0.11993775,0.26532778,-0.15331455,0.027576793,0.026967242,0.09022521,0.18953542,-0.11363166,-0.112244785,-0.049645793,0.15663303,0.095870376,-0.103303306,0.11965736,0.406526,-0.07628854,0.14105569,-0.18227233,0.33075774,0.059786476,-0.09719362,-0.13928069,0.8752702,-0.085544355,-0.1506633,-0.49130857,0.47412002,0.048872985,-0.22900611,-0.59169734,0.91757077,-0.1320625,-0.16013439,-0.3779916,0.68183666,0.0062257987,-0.64602226,-0.6659076,0.9317193,-0.15349865,0.16216545,-0.029615156,0.40366507,0.11811481,-0.8173281,-1.0026704,1.3375643,-0.18295671,-0.14252695,0.03230311,0.45177835,0.03719969,-0.6617806,-0.41035163,1.0488394,-0.17429821,-0.08940088,0.0814412,0.38036326,-0.1856482,-0.16544625,-0.09968607,0.79774034,-0.12657194,-0.16854438,0.046404246,-0.034672327,-0.17256558,0.09925146,0.16836783,0.35926235,0.10828041,0.13293485,-0.11622169,0.18989427,-0.053143464,0.0144212525,0.36161557,0.417712,-0.1563352,0.1274785,-0.4813542,0.10686798,-0.0640341,0.27753603,0.4651118,0.03634691,-0.020482901,0.10644325,-0.1848403,0.07480711,0.0752252,-0.124283604,0.5636351,0.3757958,-0.15948784,-0.08024551,-0.3521737,0.0052279397,0.05888548,-0.2197273,0.21368442,0.23370057,0.002121151,-0.13407321,0.056189846,-0.10979245,0.0906047,-0.82488495,-0.15451019,0.61137277,-0.09847059,0.15842377,0.5438428,-0.38577038,0.13136774,-0.8630322,-0.18205903,0.80755967,-0.063245334,0.02710893,0.36841056,-0.6239876,-0.18656528,-0.6741507,-0.15700823,0.9803931,0.16471986,0.063307285,0.09048297,-0.59637564,0.0925252,-0.50076896,-0.18824488,0.79013705,-0.014727311,-0.008383842,0.00054910115,-0.14314993,-0.10916772,-0.08269892,-0.20428854,0.5624746,0.1573746,0.114051,-0.1362912,0.034453735,0.14616457,0.015629563,-0.23491873,0.39548597,-0.042878196,-0.115403034,0.059745297,-0.16477905,-0.16869475,0.11492269,0.04326925,0.27295965,0.08522511,-0.061204538,0.29095057,-0.13941307,-0.11629374,0.07709465,0.04739252,-0.14863767,-0.15777713,-0.17036672,0.32371566,-0.005147134,-0.058376625,0.28989804,0.022291752,-0.40327433,0.15151592,-0.08752821,0.29556307,-0.123102516,-0.053012844,0.45618454,-0.2058935,-0.689856,-0.116017036,-0.077504866,0.3236149,-0.06809658,-0.025102606,0.46001944,-0.18890674,-1.0030994,0.00829649,0.05460308,0.56053275,0.27625924,0.14997397,0.6423252,-0.24867341,-0.97227806,-0.052672073,-0.17473692,0.50804514,0.5238454,0.032764096,0.5631227,-0.4686839,-1.0913557,0.003027669,-0.04480618,0.6724993,0.40274325,-0.16229105,0.3307926,-0.05420947,-0.945085,0.016234808,0.110432304,0.22453998,0.24974802,-0.0539343,0.24694805,0.2648298,-0.4522529,-0.017724067,-0.04884114,0.2093877,0.16093451,0.062410742,0.1163274,0.26594383,0.100705706,-0.041071884,-0.04699555,-0.057368666,0.11896632,-0.06589239,-0.029629296,0.55310464,0.16678432,0.15746307,0.14075387,-0.30506608,0.26094517,0.12229913,0.14520109,0.33730146,0.17850208,-0.16684896,-0.13044888,-0.014502586,0.20139624,0.13132042,0.038770653,0.083641246,0.17875206,-0.118134625,0.14733969,0.035900764,-0.05598394,0.038594093,-0.003838896,-0.12133022,0.11821952,0.13783617,-0.10427033,0.1784348,-0.029470151,-0.0026842642,0.074216664,-0.30383813,-0.17435715,0.034559432,0.02515359,0.5133698,-0.013214703,0.09604523,0.221459,0.2232537,0.10868605,-0.12466582,-0.16220461,0.17726158,0.28540933,0.07237824,0.25898445,0.6061807,0.30197653,0.15500809,-0.036233455,-0.06500157,0.03307007,-0.13075231,0.23653954,0.6283505,0.37789124,-0.037698433,-0.028779197,-0.24518088,0.024727149,-0.1461148,0.10265074,0.33871755,0.13025227,-0.07307152,0.11743412,-0.12056724,0.23661938,-0.08775923,0.14769413,0.38417715,0.25524414,-0.16376358,-0.017024439,-0.16269124,0.12673566,-0.033717457,0.14086923,0.013496219,0.076952524,-0.050803736,-0.17510632,0.106447674,0.19414175,-0.035692655,0.14886834,0.1093646,0.02127167,0.08907294,0.013384019,0.13415644,-0.047344506,-0.09949818,-0.10412284,-0.02219237,0.08460767,-0.029766068,-0.16597237,0.2708354,-0.14846058,0.058450017,-0.033421654,-0.14116634,-0.20525117,-0.027643576,-0.015446548,0.47596824,0.0152139515,0.062264062,0.045679543,-0.37625235,-0.1372094,-0.13410234,-0.05270792,0.59423566,-0.18094823,0.13164242,-0.07030674,-0.2909477,0.15315376,0.0557155,0.026738208,0.394293,0.019638889,0.08184754,0.052669223,-0.07964783,0.23076862,-0.081203416,-0.05096236,0.3992276,0.17938158,-0.05069052,0.13573973,-0.265988,0.09145812,0.095264606,0.035648074,0.6076612,-0.04094542,0.041509885,0.120294005,-0.23154159,0.08711095,0.014128636,-0.1459732,0.38783613,0.20775886,0.068307415,-0.1482122,-0.016377749,-0.04060283,-0.10683844,0.025633218,0.27396443,0.1784616,0.13376254,-0.06900232,0.22787465,0.16810839,-0.05274978,0.021134125,-0.111949064,0.2812025,-0.020024523,0.058632452,0.52157587,0.40357465,-0.10090752,-0.025030246,-0.26611727,0.18904105,-0.022749258,0.08133381,0.5578693,0.28468642,0.14729501,0.09986316,-0.12861715,0.20064886,0.05751525,0.033849586,0.30500537,-0.11384806,-0.042671844,-0.04057741,0.2716446,0.3911723,-0.15943038,0.18969116,-0.07311242,-0.9525877,0.108425945,0.11408094,0.18223463,0.5051189,-0.10204143,0.69328225,-0.12592891,-0.95161134,0.07743022,-0.15705518,0.2860274,0.65190566,-0.17657243,0.7624751,0.02431471,-1.1007051,-0.1313696,-0.07785696,0.30940777,0.4959795,0.15436853,0.5072137,0.012109449,-0.67119867,0.08261702,0.043942012,0.25182536,0.43654144,0.06798028,0.38195762,0.17733797,-0.44663903,0.099458106,0.06927575,0.43684986,0.082294926,0.06886161,0.27916244,-0.05516794,-0.24754016,-0.09736187,0.14464863,0.09287702,0.14106283,0.090026386,0.14645354,-0.15612894,-0.004244934,0.14976366,-0.06693062,0.074719116,0.04150762,0.1612228,0.10865087,-0.24288134,0.18255329,-0.17738187,0.12607805,0.17627318,0.2147309,0.08268016,-0.08311635,-0.36456084,0.5992038,0.053747214,0.02963394,0.2298888,0.07377736,-0.18011214,-0.19095479,-0.26828718,0.5652709,-0.17043996,-0.14405245,0.07136745,-0.1302143,0.012071795,-0.51670825,-0.31869838,0.88574535,0.09954674,-0.008715037,0.407704,-0.032753184,0.010475068,-0.680251,-0.46016264,0.95223284,-0.13481815,-0.07071669,0.78769773,-0.41651323,0.12934378,-0.8034507,-0.38290918,0.79313225,0.051097658,-0.06758505,0.5983649,-0.47012043,0.08472011,-0.8496819,-0.20550743,0.5891324,0.05080673,0.10965703,0.6742363,-0.063029036,-0.10704483,-0.37293136,0.120498314,0.19997875,0.15250017,-0.12720974,0.36771482,-0.08592376,-0.17227095,-0.15177433,0.5605209,0.33132654,0.057967346,0.020324228,-0.105382755,-0.13719445,-0.042758718,0.052794367,0.36721033,0.15993908,0.07864393,-0.10586202,-0.049758486,0.12534666,-0.100697204,0.21583687,0.44840118,0.056363102,0.15655394,-0.015114857,-0.22060995,0.08881472,0.08053771,-0.00071160414,0.079276204,0.3551883,0.030955376,0.028750861,0.056436606,0.03574916,-0.049966447,-0.34771538,-0.21896219,0.44725448,-0.12727262,-0.18475348,0.10211614,0.18110727,-0.16690366,-0.45663527,-0.35286632,1.0522089,0.09909865,-0.16225755,-0.095497556,0.24484143,0.14044161,-0.82540804,-0.61920434,1.2758158,0.1432712,-0.05482801,-0.26183417,0.42962378,-0.1875011,-0.48764563,-0.6322269,1.1465741,-0.009473338,-0.04635097,-0.45994538,0.56093454,0.08162996,-0.59516144,-0.5165728,1.0125473,0.066457555,-0.067152284,-0.3211707,0.5955245,0.044200614,-0.43767455,-0.23624384,0.7025191,-0.1545225,0.037302412,-0.25116318,0.38713667,-0.10924229,-0.13409999,0.0330334,0.59516233,0.06822037,0.039351206,-0.45109165,0.53329486,-0.12342666,0.16629827,0.21367455,0.4573876,-0.14414656,0.14010459,-0.29353553,0.12443763,-0.01672316,0.09831888,0.23267426,0.20454715,-0.028574958,-0.144623,0.14812726,0.10470825,-0.020189466,0.11868276,0.300466,-0.34005257,-0.042941052,-0.017082212,0.35906932,-0.27611718,-0.05727309,0.3589894,0.44672498,-0.6186739,-0.07947259,-0.023616811,0.59835595,-0.43466264,-0.0735292,0.483066,0.41320178,-0.73715067,-0.089729145,-0.06671105,0.67312026,-0.51677513,-0.07132075,0.5318662,0.20575327,-1.430834,0.016197138,-0.084774196,0.988255,-0.4767737,-0.10712275,0.61193174,0.109895855,-1.2599295,-0.093252905,0.01839523,0.8019379,-0.6950842,0.15219064,0.796963,0.07918779,-1.0827718,-0.11206855,-0.15379447,0.46186206,-0.28721204,-0.028346598,0.38543013,0.05298421,-0.25589976,0.008971571,0.15045172,0.10812599,-0.11333183,-0.15995309,0.32778558,0.35937324,0.053315617,-0.14684197,-0.009790442,-0.02432116,0.073994994,-0.18233657,0.2446268,0.51523775,0.13312864,0.14003836,-0.07382379,-0.42211923,0.025446717,-0.0899647,0.070046455,0.41929138,0.14764766,-0.14490338,-0.010067791,-0.1665571,0.2760473,0.16285698,0.092825875,0.32740858,0.26067808,-0.035574906,-0.022597168,-0.112409875,0.1430187,-0.03412762,0.141589,0.008076613,0.25313145,-0.15105301,-0.010886952,-0.056736723,0.28153402,-0.02745381,-0.112208225,-0.6997089,0.4838256,0.11662821,0.1539195,0.04459734,0.65463036,0.07989661,-0.05394705,-0.52831656,0.41470942,-0.06989314,-0.032769676,-0.39470854,0.7003664,0.12698689,-0.14543262,-0.516843,0.49683076,-0.13425672,0.0016041164,-0.37460154,0.94959986,-0.12813203,0.10922313,-0.31859377,0.2735544,0.16131516,0.086289704,-0.48224413,0.94328225,-0.020001821,-0.0822278,-0.18275343,0.21251953,-0.1308526,0.009249396,-0.14402437,0.6191116,-0.18675965,-0.09390367,0.016439352,0.073932596,-0.06932262,-0.050380666,-0.06566681,0.5543844,0.056103226,-0.18248586,-0.06291171,-0.0658524,0.045965996,0.040073708,0.028731627,0.15885091,-0.12528707,-0.17783949,0.24481788,0.19165757,-0.051552106,0.06350041,0.33940622,-0.068653226,0.078213796,-0.3710497,0.14447902,-0.077002205,0.073457755,0.024854442,0.19510038,-0.4237411,-0.16896477,-0.2476441,0.00923994,-0.073111035,0.12610237,-0.015161148,0.6295064,-0.5600269,0.0044833487,-0.13151821,0.07112462,-0.25004905,-0.04100254,0.06855271,0.67838985,-0.63775724,0.062123254,-0.048449453,0.1950743,-0.694221,0.10140757,-0.0035763436,1.0144864,-0.8699244,-0.044619657,0.0072852965,-0.09477778,-0.6321491,-0.10121242,-0.0006440503,0.89018583,-1.054027,0.13292968,0.4502308,-0.43756628,-0.26445755,-0.0924173,0.05852393,0.77363396,-0.63410085,-0.04554348,0.35824096,-0.0022805089,-0.12062644,-0.07525423,0.16527784,0.43211755,-0.46676382,0.043434426,0.28971115,0.3210415,0.17649016,0.17078252,-0.07367708,0.029335752,0.10114274,-0.077183366,0.020971943,0.38566065,0.31370223,0.009043668,0.045127094,-0.1549817,0.17353976,0.022495808,0.16785136,0.4388552,0.11495898,-0.16069135,-0.037252277,-0.14640495,-0.04756996,0.10197359,0.18292089,0.36991805,-0.0556735,0.010727586,0.056275655,-0.078785725,0.12854044,0.006647857,0.059557095,-0.011768758,-0.23935674,0.1506383,-0.10601702,-0.19206506,0.42566198,0.114775896,0.4759081,-0.29478958,-0.32516354,-0.08947414,0.15722303,-0.076962814,1.000032,0.13254131,0.60912514,-0.60440725,-0.54454595,-0.13499336,0.016842192,-0.168799,1.0010527,0.043853223,0.5373531,-0.63071024,-0.75685924,-0.08766524,0.02688355,-0.47920337,1.1613014,-0.0075875055,0.5100818,-0.28842953,-0.32815343,-0.044234917,-0.1086108,-0.46056598,1.1108369,0.02596117,0.46894667,-0.19252968,-0.19370446,0.08531395,-0.029528135,-0.1212844,0.70571303,0.07002345,0.22403179,-0.09818723,-0.09512496,0.17063522,0.04630577,-0.3015594,0.6666968,0.023386182,0.3429973,0.16753441,0.02486188,-0.14767271,0.08096266,-0.16049904,0.20721747,-0.1544379,0.012727091,0.33734766,0.16400792,-0.10172104,-0.054600935,0.1053721,0.07159517,-0.1433678,-0.029292684,0.30914402,0.6334894,0.066886105,-0.19118503,0.3278064,-0.3247091,-0.057742268,-0.4110481,0.070326515,0.5979243,0.04323026,0.10620312,0.32562998,-0.52812815,-0.058121238,-0.47685233,0.11893391,0.66212493,-0.05664018,0.07268558,0.5948986,-1.0117549,-0.05436664,-0.5974922,0.10452497,0.28580198,-0.114654645,0.008323821,0.8973,-1.0286306,0.1286821,-0.8039038,0.06797841,0.39224336,0.10192679,0.091632284,0.9258413,-1.3480898,-0.029027883,-0.30019888,0.054342356,0.009881038,-0.07543377,-0.15253416,0.8703147,-1.0192151,0.060962602,-0.23334102,0.16416325,0.14012836,0.088537976,-0.08758874,0.27645695,-0.5175564,-0.1646637,-0.14961717,0.5576281,0.15576331,0.119777046,-0.15810603,-0.0712332,0.032642327,-0.07826399,-0.123906635,0.6593124,0.2704574,0.0005633806,0.075819656,-0.22884572,0.013081884,0.13860539};
const float layer_0_biases[] PROGMEM = {0.06806153,-0.13705799,-0.025721774,-0.0055826665,-0.015769854,0.48416933,0.020281445,-0.010719186};
const float layer_1_weights[] PROGMEM = {0.11395894,-3.062311,2.254047,-1.0472014,-1.3893334,2.5896168,-1.167881,-1.3483186,1.4235028,-2.8267896,0.7368814,1.8370428,-2.523239,-1.8642794,0.8449784,-0.01244262,-0.38559452,0.3902903,0.19404255,-0.31226963,-0.56093305,-0.17248358,0.5368325,-0.075254366,0.15916492,-1.1940002,0.13954079,-0.100505404,0.89439285,-0.77299815,0.30102044,-2.1448169,0.529241,-2.8935678,1.7999014,-0.18715319,-0.6365413,0.32816055,-0.43745616,-0.6671049};
const float layer_1_biases[] PROGMEM = {-0.61462635,0.27370766,-0.014255787,0.14978918,0.2596806};

const float scaledbuffer[] PROGMEM = {0.67773438,0.6796875,0.67948191,0.67326275,0.59328742,0.29466488
,0.03829153,0.01541941,0.0104852,0.00832648,0.00729852,0.00683594
,0.00683594,0.00750411,0.0495477,0.33275082,0.58686266,0.66478207
,0.67362253,0.6796875,0.69335938,0.6953639,0.69608347,0.69094367
,0.62823808,0.35531456,0.04661801,0.01603618,0.0104852,0.0078639
,0.00632196,0.01207854,0.01721834,0.01156456,0.01094778,0.09729646
,0.41863692,0.6301398,0.68266859,0.6953125,0.71289062,0.71489515
,0.71551192,0.71134868,0.67434211,0.43534128,0.05232319,0.01469984
,0.00853207,0.00637336,0.00534539,0.00488281,0.00426604,0.00323808
,0.00292969,0.00678454,0.06373355,0.38615337,0.64026521,0.70996094
,0.70800781,0.7108347,0.70497533,0.62803248,0.32869038,0.05396793
,0.02456826,0.01711554,0.01382607,0.01177015,0.01125617,0.01171875
,0.01665296,0.13312089,0.45538651,0.6535259,0.70204564,0.70780222
,0.70708265,0.70996094,0.66992188,0.6745477,0.66642681,0.59601151
,0.30633224,0.02826891,0.01017681,0.00611637,0.00447163,0.00344367
,0.00704153,0.00904605,0.00596217,0.0155736,0.13635896,0.44449013
,0.625,0.66473067,0.66884252,0.67285156,0.71191406,0.71463816
,0.70898438,0.66447368,0.41858553,0.04492187,0.01541941,0.00966283
,0.00740132,0.00637336,0.00585938,0.005294,0.00426604,0.00390625
,0.01973684,0.15722656,0.51146176,0.67788857,0.70800781,0.71386719
,0.71484375,0.71335321,0.61117393,0.23329564,0.03551604,0.01701275
,0.01207854,0.01002262,0.00878906,0.00971423,0.00971423,0.04497327
,0.32786801,0.59914679,0.69413035,0.71109169,0.7160259,0.71417558
,0.71664268,0.71679688,0.67578125,0.67367393,0.58095189,0.22717928
,0.02364309,0.00899465,0.00621916,0.00452303,0.00390625,0.00668174
,0.0077097,0.00585938,0.05273438,0.29923931,0.55509868,0.65044202
,0.67429071,0.67413651,0.67752878,0.67675781,0.66210938,0.65933388
,0.57637747,0.25380345,0.02539063,0.00971423,0.00621916,0.00452303
,0.00390625,0.00298109,0.00195312,0.00195312,0.00318668,0.03731497
,0.28371711,0.54199219,0.64396587,0.65779194,0.66282895,0.66210938};
